network unknown {
}
variable Alarm1 {
    type discrete [ 2 ] { 0, 1 };
}
variable Alarm2 {
    type discrete [ 2 ] { 0, 1 };
}
variable Alarm3 {
    type discrete [ 2 ] { 0, 1 };
}
variable Alarm4 {
    type discrete [ 2 ] { 0, 1 };
}
variable Alarm5 {
    type discrete [ 2 ] { 0, 1 };
}
variable Machine_State {
    type discrete [ 2 ] { Failure, Operating };
}
variable Maintenance_action {
    type discrete [ 6 ] { Change_oil, Clean_and_refill_fluid, Inspect_pump, None_needed, Replace_motor, Replace_pump };
}
variable OEE {
    type discrete [ 2 ] { High, Medium };
}
variable SPARE_COST {
    type discrete [ 3 ] { High, Low, Medium };
}
probability ( Alarm1 ) {
    table 0.624, 0.376 ;
}
probability ( Alarm2 ) {
    table 0.016, 0.984 ;
}
probability ( Alarm3 ) {
    table 0.528, 0.472 ;
}
probability ( Alarm4 ) {
    table 0.832, 0.168 ;
}
probability ( Alarm5 ) {
    table 0.232, 0.768 ;
}
probability ( Machine_State | Alarm1, Alarm2, Alarm3, Alarm4, Alarm5 ) {
    ( 0, 0, 0, 0, 0 ) 0.5, 0.5;
    ( 0, 0, 0, 0, 1 ) 0.5, 0.5;
    ( 0, 0, 0, 1, 0 ) 0.5, 0.5;
    ( 0, 0, 0, 1, 1 ) 0.5, 0.5;
    ( 0, 0, 1, 0, 0 ) 0.5, 0.5;
    ( 0, 0, 1, 0, 1 ) 0.5, 0.5;
    ( 0, 0, 1, 1, 0 ) 0.5, 0.5;
    ( 0, 0, 1, 1, 1 ) 0.5, 0.5;
    ( 0, 1, 0, 0, 0 ) 0.5, 0.5;
    ( 0, 1, 0, 0, 1 ) 0.0196078431372549, 0.9803921568627451;
    ( 0, 1, 0, 1, 0 ) 0.25, 0.75;
    ( 0, 1, 0, 1, 1 ) 0.1, 0.9;
    ( 0, 1, 1, 0, 0 ) 0.5, 0.5;
    ( 0, 1, 1, 0, 1 ) 0.9375, 0.0625;
    ( 0, 1, 1, 1, 0 ) 0.5, 0.5;
    ( 0, 1, 1, 1, 1 ) 0.8333333333333334, 0.16666666666666666;
    ( 1, 0, 0, 0, 0 ) 0.5, 0.5;
    ( 1, 0, 0, 0, 1 ) 0.5, 0.5;
    ( 1, 0, 0, 1, 0 ) 0.5, 0.5;
    ( 1, 0, 0, 1, 1 ) 0.5, 0.5;
    ( 1, 0, 1, 0, 0 ) 0.5, 0.5;
    ( 1, 0, 1, 0, 1 ) 0.5, 0.5;
    ( 1, 0, 1, 1, 0 ) 0.5, 0.5;
    ( 1, 0, 1, 1, 1 ) 0.6666666666666666, 0.3333333333333333;
    ( 1, 1, 0, 0, 0 ) 0.875, 0.125;
    ( 1, 1, 0, 0, 1 ) 0.5, 0.5;
    ( 1, 1, 0, 1, 0 ) 0.5, 0.5;
    ( 1, 1, 0, 1, 1 ) 0.5, 0.5;
    ( 1, 1, 1, 0, 0 ) 0.9545454545454546, 0.045454545454545456;
    ( 1, 1, 1, 0, 1 ) 0.9375, 0.0625;
    ( 1, 1, 1, 1, 0 ) 0.5, 0.5;
    ( 1, 1, 1, 1, 1 ) 0.8571428571428571, 0.14285714285714285;

}
probability ( Maintenance_action | Alarm1, Alarm2, Alarm3, Alarm4, Alarm5, Machine_State ) {
    ( 0, 0, 0, 0, 0, Failure ) 0.16666666666666666, 0.16666666666666666, 0.16666666666666666, 0.16666666666666666, 0.16666666666666666, 0.16666666666666666;
    ( 0, 0, 0, 0, 0, Operating ) 0.16666666666666666, 0.16666666666666666, 0.16666666666666666, 0.16666666666666666, 0.16666666666666666, 0.16666666666666666;
    ( 0, 0, 0, 0, 1, Failure ) 0.16666666666666666, 0.16666666666666666, 0.16666666666666666, 0.16666666666666666, 0.16666666666666666, 0.16666666666666666;
    ( 0, 0, 0, 0, 1, Operating ) 0.16666666666666666, 0.16666666666666666, 0.16666666666666666, 0.16666666666666666, 0.16666666666666666, 0.16666666666666666;
    ( 0, 0, 0, 1, 0, Failure ) 0.16666666666666666, 0.16666666666666666, 0.16666666666666666, 0.16666666666666666, 0.16666666666666666, 0.16666666666666666;
    ( 0, 0, 0, 1, 0, Operating ) 0.16666666666666666, 0.16666666666666666, 0.16666666666666666, 0.16666666666666666, 0.16666666666666666, 0.16666666666666666;
    ( 0, 0, 0, 1, 1, Failure ) 0.16666666666666666, 0.16666666666666666, 0.16666666666666666, 0.16666666666666666, 0.16666666666666666, 0.16666666666666666;
    ( 0, 0, 0, 1, 1, Operating ) 0.16666666666666666, 0.16666666666666666, 0.16666666666666666, 0.16666666666666666, 0.16666666666666666, 0.16666666666666666;
    ( 0, 0, 1, 0, 0, Failure ) 0.16666666666666666, 0.16666666666666666, 0.16666666666666666, 0.16666666666666666, 0.16666666666666666, 0.16666666666666666;
    ( 0, 0, 1, 0, 0, Operating ) 0.16666666666666666, 0.16666666666666666, 0.16666666666666666, 0.16666666666666666, 0.16666666666666666, 0.16666666666666666;
    ( 0, 0, 1, 0, 1, Failure ) 0.16666666666666666, 0.16666666666666666, 0.16666666666666666, 0.16666666666666666, 0.16666666666666666, 0.16666666666666666;
    ( 0, 0, 1, 0, 1, Operating ) 0.16666666666666666, 0.16666666666666666, 0.16666666666666666, 0.16666666666666666, 0.16666666666666666, 0.16666666666666666;
    ( 0, 0, 1, 1, 0, Failure ) 0.16666666666666666, 0.16666666666666666, 0.16666666666666666, 0.16666666666666666, 0.16666666666666666, 0.16666666666666666;
    ( 0, 0, 1, 1, 0, Operating ) 0.16666666666666666, 0.16666666666666666, 0.16666666666666666, 0.16666666666666666, 0.16666666666666666, 0.16666666666666666;
    ( 0, 0, 1, 1, 1, Failure ) 0.16666666666666666, 0.16666666666666666, 0.16666666666666666, 0.16666666666666666, 0.16666666666666666, 0.16666666666666666;
    ( 0, 0, 1, 1, 1, Operating ) 0.16666666666666666, 0.16666666666666666, 0.16666666666666666, 0.16666666666666666, 0.16666666666666666, 0.16666666666666666;
    ( 0, 1, 0, 0, 0, Failure ) 0.16666666666666666, 0.16666666666666666, 0.16666666666666666, 0.16666666666666666, 0.16666666666666666, 0.16666666666666666;
    ( 0, 1, 0, 0, 0, Operating ) 0.16666666666666666, 0.16666666666666666, 0.16666666666666666, 0.16666666666666666, 0.16666666666666666, 0.16666666666666666;
    ( 0, 1, 0, 0, 1, Failure ) 0.16666666666666666, 0.16666666666666666, 0.16666666666666666, 0.16666666666666666, 0.16666666666666666, 0.16666666666666666;
    ( 0, 1, 0, 0, 1, Operating ) 0.01818181818181818, 0.01818181818181818, 0.01818181818181818, 0.9090909090909091, 0.01818181818181818, 0.01818181818181818;
    ( 0, 1, 0, 1, 0, Failure ) 0.16666666666666666, 0.16666666666666666, 0.16666666666666666, 0.16666666666666666, 0.16666666666666666, 0.16666666666666666;
    ( 0, 1, 0, 1, 0, Operating ) 0.125, 0.125, 0.125, 0.375, 0.125, 0.125;
    ( 0, 1, 0, 1, 1, Failure ) 0.16666666666666666, 0.16666666666666666, 0.16666666666666666, 0.16666666666666666, 0.16666666666666666, 0.16666666666666666;
    ( 0, 1, 0, 1, 1, Operating ) 0.07142857142857142, 0.07142857142857142, 0.07142857142857142, 0.6428571428571429, 0.07142857142857142, 0.07142857142857142;
    ( 0, 1, 1, 0, 0, Failure ) 0.16666666666666666, 0.16666666666666666, 0.16666666666666666, 0.16666666666666666, 0.16666666666666666, 0.16666666666666666;
    ( 0, 1, 1, 0, 0, Operating ) 0.16666666666666666, 0.16666666666666666, 0.16666666666666666, 0.16666666666666666, 0.16666666666666666, 0.16666666666666666;
    ( 0, 1, 1, 0, 1, Failure ) 0.05, 0.05, 0.75, 0.05, 0.05, 0.05;
    ( 0, 1, 1, 0, 1, Operating ) 0.16666666666666666, 0.16666666666666666, 0.16666666666666666, 0.16666666666666666, 0.16666666666666666, 0.16666666666666666;
    ( 0, 1, 1, 1, 0, Failure ) 0.16666666666666666, 0.16666666666666666, 0.16666666666666666, 0.16666666666666666, 0.16666666666666666, 0.16666666666666666;
    ( 0, 1, 1, 1, 0, Operating ) 0.16666666666666666, 0.16666666666666666, 0.16666666666666666, 0.16666666666666666, 0.16666666666666666, 0.16666666666666666;
    ( 0, 1, 1, 1, 1, Failure ) 0.1, 0.1, 0.1, 0.1, 0.1, 0.5;
    ( 0, 1, 1, 1, 1, Operating ) 0.16666666666666666, 0.16666666666666666, 0.16666666666666666, 0.16666666666666666, 0.16666666666666666, 0.16666666666666666;
    ( 1, 0, 0, 0, 0, Failure ) 0.16666666666666666, 0.16666666666666666, 0.16666666666666666, 0.16666666666666666, 0.16666666666666666, 0.16666666666666666;
    ( 1, 0, 0, 0, 0, Operating ) 0.16666666666666666, 0.16666666666666666, 0.16666666666666666, 0.16666666666666666, 0.16666666666666666, 0.16666666666666666;
    ( 1, 0, 0, 0, 1, Failure ) 0.16666666666666666, 0.16666666666666666, 0.16666666666666666, 0.16666666666666666, 0.16666666666666666, 0.16666666666666666;
    ( 1, 0, 0, 0, 1, Operating ) 0.16666666666666666, 0.16666666666666666, 0.16666666666666666, 0.16666666666666666, 0.16666666666666666, 0.16666666666666666;
    ( 1, 0, 0, 1, 0, Failure ) 0.16666666666666666, 0.16666666666666666, 0.16666666666666666, 0.16666666666666666, 0.16666666666666666, 0.16666666666666666;
    ( 1, 0, 0, 1, 0, Operating ) 0.16666666666666666, 0.16666666666666666, 0.16666666666666666, 0.16666666666666666, 0.16666666666666666, 0.16666666666666666;
    ( 1, 0, 0, 1, 1, Failure ) 0.16666666666666666, 0.16666666666666666, 0.16666666666666666, 0.16666666666666666, 0.16666666666666666, 0.16666666666666666;
    ( 1, 0, 0, 1, 1, Operating ) 0.16666666666666666, 0.16666666666666666, 0.16666666666666666, 0.16666666666666666, 0.16666666666666666, 0.16666666666666666;
    ( 1, 0, 1, 0, 0, Failure ) 0.16666666666666666, 0.16666666666666666, 0.16666666666666666, 0.16666666666666666, 0.16666666666666666, 0.16666666666666666;
    ( 1, 0, 1, 0, 0, Operating ) 0.16666666666666666, 0.16666666666666666, 0.16666666666666666, 0.16666666666666666, 0.16666666666666666, 0.16666666666666666;
    ( 1, 0, 1, 0, 1, Failure ) 0.16666666666666666, 0.16666666666666666, 0.16666666666666666, 0.16666666666666666, 0.16666666666666666, 0.16666666666666666;
    ( 1, 0, 1, 0, 1, Operating ) 0.16666666666666666, 0.16666666666666666, 0.16666666666666666, 0.16666666666666666, 0.16666666666666666, 0.16666666666666666;
    ( 1, 0, 1, 1, 0, Failure ) 0.16666666666666666, 0.16666666666666666, 0.16666666666666666, 0.16666666666666666, 0.16666666666666666, 0.16666666666666666;
    ( 1, 0, 1, 1, 0, Operating ) 0.16666666666666666, 0.16666666666666666, 0.16666666666666666, 0.16666666666666666, 0.16666666666666666, 0.16666666666666666;
    ( 1, 0, 1, 1, 1, Failure ) 0.14285714285714285, 0.14285714285714285, 0.14285714285714285, 0.14285714285714285, 0.14285714285714285, 0.2857142857142857;
    ( 1, 0, 1, 1, 1, Operating ) 0.16666666666666666, 0.16666666666666666, 0.16666666666666666, 0.16666666666666666, 0.16666666666666666, 0.16666666666666666;
    ( 1, 1, 0, 0, 0, Failure ) 0.08333333333333333, 0.5833333333333334, 0.08333333333333333, 0.08333333333333333, 0.08333333333333333, 0.08333333333333333;
    ( 1, 1, 0, 0, 0, Operating ) 0.16666666666666666, 0.16666666666666666, 0.16666666666666666, 0.16666666666666666, 0.16666666666666666, 0.16666666666666666;
    ( 1, 1, 0, 0, 1, Failure ) 0.16666666666666666, 0.16666666666666666, 0.16666666666666666, 0.16666666666666666, 0.16666666666666666, 0.16666666666666666;
    ( 1, 1, 0, 0, 1, Operating ) 0.16666666666666666, 0.16666666666666666, 0.16666666666666666, 0.16666666666666666, 0.16666666666666666, 0.16666666666666666;
    ( 1, 1, 0, 1, 0, Failure ) 0.16666666666666666, 0.16666666666666666, 0.16666666666666666, 0.16666666666666666, 0.16666666666666666, 0.16666666666666666;
    ( 1, 1, 0, 1, 0, Operating ) 0.16666666666666666, 0.16666666666666666, 0.16666666666666666, 0.16666666666666666, 0.16666666666666666, 0.16666666666666666;
    ( 1, 1, 0, 1, 1, Failure ) 0.16666666666666666, 0.16666666666666666, 0.16666666666666666, 0.16666666666666666, 0.16666666666666666, 0.16666666666666666;
    ( 1, 1, 0, 1, 1, Operating ) 0.16666666666666666, 0.16666666666666666, 0.16666666666666666, 0.16666666666666666, 0.16666666666666666, 0.16666666666666666;
    ( 1, 1, 1, 0, 0, Failure ) 0.3076923076923077, 0.5384615384615384, 0.038461538461538464, 0.038461538461538464, 0.038461538461538464, 0.038461538461538464;
    ( 1, 1, 1, 0, 0, Operating ) 0.16666666666666666, 0.16666666666666666, 0.16666666666666666, 0.16666666666666666, 0.16666666666666666, 0.16666666666666666;
    ( 1, 1, 1, 0, 1, Failure ) 0.1, 0.05, 0.05, 0.05, 0.7, 0.05;
    ( 1, 1, 1, 0, 1, Operating ) 0.16666666666666666, 0.16666666666666666, 0.16666666666666666, 0.16666666666666666, 0.16666666666666666, 0.16666666666666666;
    ( 1, 1, 1, 1, 0, Failure ) 0.16666666666666666, 0.16666666666666666, 0.16666666666666666, 0.16666666666666666, 0.16666666666666666, 0.16666666666666666;
    ( 1, 1, 1, 1, 0, Operating ) 0.16666666666666666, 0.16666666666666666, 0.16666666666666666, 0.16666666666666666, 0.16666666666666666, 0.16666666666666666;
    ( 1, 1, 1, 1, 1, Failure ) 0.09090909090909091, 0.09090909090909091, 0.09090909090909091, 0.09090909090909091, 0.5454545454545454, 0.09090909090909091;
    ( 1, 1, 1, 1, 1, Operating ) 0.16666666666666666, 0.16666666666666666, 0.16666666666666666, 0.16666666666666666, 0.16666666666666666, 0.16666666666666666;

}
probability ( OEE | Maintenance_action ) {
    ( Change_oil ) 0.7, 0.3;
    ( Clean_and_refill_fluid ) 0.9523809523809523, 0.047619047619047616;
    ( Inspect_pump ) 0.9375, 0.0625;
    ( None_needed ) 0.9836065573770492, 0.01639344262295082;
    ( Replace_motor ) 0.95, 0.05;
    ( Replace_pump ) 0.8571428571428571, 0.14285714285714285;

}
probability ( SPARE_COST | Maintenance_action ) {
    ( Change_oil ) 0.09090909090909091, 0.09090909090909091, 0.8181818181818182;
    ( Clean_and_refill_fluid ) 0.045454545454545456, 0.09090909090909091, 0.8636363636363636;
    ( Inspect_pump ) 0.058823529411764705, 0.058823529411764705, 0.8823529411764706;
    ( None_needed ) 0.016129032258064516, 0.967741935483871, 0.016129032258064516;
    ( Replace_motor ) 0.9047619047619048, 0.047619047619047616, 0.047619047619047616;
    ( Replace_pump ) 0.125, 0.125, 0.75;

}
